{"kpoints": {"K": [0.03453358561976115, 0.03453358561976115, 0.0690671712395223], "L": [0.046044780826348206, 0.046044780826348206, 0.046044780826348206], "U": [0.05755597603293526, 0.023022390413174103, 0.05755597603293526], "W": [0.046044780826348206, 0.023022390413174103, 0.0690671712395223], "X": [0.046044780826348206, 0.0, 0.046044780826348206], "GAMMA": [0.0, 0.0, 0.0], "W_2": [0.0690671712395223, 0.023022390413174103, 0.046044780826348206]}, "faces_data": {"triangles_vertices": [[-0.046044780826348206, -0.046044780826348206, -0.046044780826348206], [0.046044780826348206, 0.046044780826348206, -0.046044780826348206], [0.046044780826348206, 0.046044780826348206, 0.046044780826348206], [-0.046044780826348206, -0.046044780826348206, 0.04604478082634821], [0.046044780826348206, -0.04604478082634822, -0.046044780826348206], [-0.046044780826348206, 0.046044780826348206, -0.046044780826348206], [-0.046044780826348206, 0.046044780826348206, 0.046044780826348206], [0.046044780826348206, -0.046044780826348206, 0.046044780826348206]], "triangles": [[1, 4, 5], [5, 4, 0], [0, 4, 7], [7, 3, 0], [7, 4, 1], [1, 2, 7], [6, 5, 0], [0, 3, 6], [3, 7, 6], [6, 7, 2], [1, 5, 6], [6, 2, 1]], "faces": [[[-0.046044780826348206, -0.046044780826348206, -0.046044780826348206], [0.046044780826348206, -0.04604478082634822, -0.046044780826348206], [0.046044780826348206, 0.046044780826348206, -0.046044780826348206], [-0.046044780826348206, 0.046044780826348206, -0.046044780826348206]], [[-0.046044780826348206, -0.046044780826348206, 0.04604478082634821], [-0.046044780826348206, -0.046044780826348206, -0.046044780826348206], [0.046044780826348206, -0.04604478082634822, -0.046044780826348206], [0.046044780826348206, -0.046044780826348206, 0.046044780826348206]], [[0.046044780826348206, 0.046044780826348206, 0.046044780826348206], [0.046044780826348206, 0.046044780826348206, -0.046044780826348206], [0.046044780826348206, -0.04604478082634822, -0.046044780826348206], [0.046044780826348206, -0.046044780826348206, 0.046044780826348206]], [[-0.046044780826348206, -0.046044780826348206, 0.04604478082634821], [-0.046044780826348206, -0.046044780826348206, -0.046044780826348206], [-0.046044780826348206, 0.046044780826348206, -0.046044780826348206], [-0.046044780826348206, 0.046044780826348206, 0.046044780826348206]], [[0.046044780826348206, -0.046044780826348206, 0.046044780826348206], [0.046044780826348206, 0.046044780826348206, 0.046044780826348206], [-0.046044780826348206, 0.046044780826348206, 0.046044780826348206], [-0.046044780826348206, -0.046044780826348206, 0.04604478082634821]], [[0.046044780826348206, 0.046044780826348206, 0.046044780826348206], [0.046044780826348206, 0.046044780826348206, -0.046044780826348206], [-0.046044780826348206, 0.046044780826348206, -0.046044780826348206], [-0.046044780826348206, 0.046044780826348206, 0.046044780826348206]]]}, "b1": [0.09208956165269641, 0.0, 0.0], "b2": [0.0, 0.09208956165269641, 0.0], "b3": [0.0, 0.0, 0.09208956165269641]}