{"kpoints": {"K": [0.07633368521402417, 0.07633368521402417, 0.15266737042804834], "L": [0.10177824695203223, 0.10177824695203223, 0.10177824695203223], "U": [0.1272228086900403, 0.05088912347601612, 0.1272228086900403], "W": [0.10177824695203223, 0.05088912347601612, 0.15266737042804834], "X": [0.10177824695203223, 0.0, 0.10177824695203223], "GAMMA": [0.0, 0.0, 0.0], "W_2": [0.15266737042804834, 0.05088912347601612, 0.10177824695203223]}, "faces_data": {"triangles_vertices": [[-0.10177824695203223, 0.10177824695203223, -0.10177824695203222], [-0.10177824695203223, 0.10177824695203223, 0.10177824695203223], [-0.10177824695203223, -0.10177824695203223, 0.10177824695203223], [0.10177824695203223, 0.10177824695203226, 0.10177824695203223], [0.10177824695203223, 0.10177824695203223, -0.10177824695203223], [0.10177824695203223, -0.10177824695203226, 0.10177824695203223], [-0.10177824695203223, -0.10177824695203223, -0.10177824695203223], [0.10177824695203223, -0.10177824695203223, -0.10177824695203223]], "triangles": [[3, 4, 1], [1, 4, 0], [7, 4, 3], [3, 5, 7], [0, 4, 7], [7, 6, 0], [3, 1, 2], [2, 5, 3], [2, 7, 5], [6, 7, 2], [2, 1, 0], [0, 6, 2]], "faces": [[[0.10177824695203223, 0.10177824695203223, -0.10177824695203223], [0.10177824695203223, 0.10177824695203226, 0.10177824695203223], [-0.10177824695203223, 0.10177824695203223, 0.10177824695203223], [-0.10177824695203223, 0.10177824695203223, -0.10177824695203222]], [[0.10177824695203223, 0.10177824695203226, 0.10177824695203223], [0.10177824695203223, -0.10177824695203226, 0.10177824695203223], [0.10177824695203223, -0.10177824695203223, -0.10177824695203223], [0.10177824695203223, 0.10177824695203223, -0.10177824695203223]], [[0.10177824695203223, 0.10177824695203223, -0.10177824695203223], [-0.10177824695203223, 0.10177824695203223, -0.10177824695203222], [-0.10177824695203223, -0.10177824695203223, -0.10177824695203223], [0.10177824695203223, -0.10177824695203223, -0.10177824695203223]], [[0.10177824695203223, 0.10177824695203226, 0.10177824695203223], [0.10177824695203223, -0.10177824695203226, 0.10177824695203223], [-0.10177824695203223, -0.10177824695203223, 0.10177824695203223], [-0.10177824695203223, 0.10177824695203223, 0.10177824695203223]], [[0.10177824695203223, -0.10177824695203226, 0.10177824695203223], [-0.10177824695203223, -0.10177824695203223, 0.10177824695203223], [-0.10177824695203223, -0.10177824695203223, -0.10177824695203223], [0.10177824695203223, -0.10177824695203223, -0.10177824695203223]], [[-0.10177824695203223, -0.10177824695203223, -0.10177824695203223], [-0.10177824695203223, -0.10177824695203223, 0.10177824695203223], [-0.10177824695203223, 0.10177824695203223, 0.10177824695203223], [-0.10177824695203223, 0.10177824695203223, -0.10177824695203222]]]}, "b1": [0.20355649390406447, 0.0, 0.0], "b2": [0.0, 0.20355649390406447, 0.0], "b3": [0.0, 0.0, 0.20355649390406447]}